19 30
Q494335 -0.162911773 0.071842454 -0.223435551 -0.289004564 0.834948838 -0.373376131 1.436196566 -0.942946911 0.798837423 -0.529549837 -1.091696024 -0.765305698 0.203581586 -0.059470851 0.534320354 -0.251182020 0.074767441 0.286640048 -0.886454582 0.992972612 -0.563513398 -1.511011958 0.161308929 0.646917820 -0.067278102 0.717815042 0.498852462 0.323174924 -0.645257473 0.514248312
Q1278301 0.039679553 -0.115788229 -0.179974616 0.590080559 0.158913493 0.008464743 0.712676883 0.380636603 0.218146771 0.071241893 0.033335678 0.023614945 -0.333013386 -0.196633220 -0.244124830 -0.245467201 -0.128099650 0.170152053 0.245730743 -0.250706136 -0.030494818 -0.925419450 -0.417983502 0.062725335 -0.099310808 0.032380767 0.006573284 0.117355406 -0.292733073 0.085626565
Q611586 -0.015744781 -0.020170633 -0.313573331 0.515067458 0.039014913 -0.114478707 0.770638645 0.304640383 0.151613817 -0.064151026 0.049317110 0.096115962 -0.286276072 -0.148435831 -0.412012070 -0.354315609 -0.025326926 0.363110423 0.249317914 -0.092856616 0.001826393 -0.880759954 -0.342867255 -0.046839789 -0.010857403 -0.009925604 0.075535528 -0.078092493 -0.423704922 -0.145149738
Q816369 0.488982528 -0.719077468 0.109514274 0.301486224 -0.402110636 0.291337997 0.829619348 -0.365474463 -0.003602585 -0.084129788 -0.385314286 0.561843872 0.209570155 0.290524751 0.615669608 -0.655480266 0.124982938 0.344153345 0.439954489 -0.436307102 0.151866764 -1.517954350 -0.980850518 0.471125931 -0.131241366 0.034408133 0.067179568 -0.483587325 -0.151272327 0.616279542
Q26833575 0.095825180 -0.207610607 -0.293776900 0.226735979 0.113529690 0.536592960 0.747583449 -0.221452087 0.707165003 -0.324756503 -0.418339074 0.055152383 0.011121515 0.255806923 0.316517383 -0.018421080 0.008844773 -0.076134011 -0.607688427 -0.081972994 -0.681046486 -1.207200646 -0.110992655 0.185498059 0.076545484 0.030449783 0.353380233 0.903766155 0.567601860 -0.199805245
Q4001141 -0.302907467 0.413468897 -0.093052380 -0.000267223 0.542114258 0.654070675 1.096919656 0.690674841 0.325966358 0.352898866 -0.399244636 -0.125934243 0.113839768 0.305041015 0.184725806 0.562545836 -0.121596463 0.044070400 -0.309128165 -0.398966819 0.787266910 -1.215442300 0.620027304 0.110074416 0.713626862 -0.023190772 0.354576439 0.209244311 -0.041610725 0.203336850
Q37079 0.081075773 0.164714098 -0.277184844 0.367808193 0.092427522 0.061042458 1.345695972 -0.052302308 0.072692610 -0.921508253 0.003732713 1.052977800 0.004153189 -0.361649245 -0.106952123 -0.106792875 -0.306964099 0.584614277 -0.052213132 -0.707728088 1.492496490 -1.404793501 0.281009525 -0.312635839 -0.425474137 -0.320086986 0.691164136 -0.829324543 -1.035625100 0.209980398
Q1742604 -0.230359614 -0.070988066 -0.073178999 0.081359833 -0.038615976 0.052069135 0.629065633 -0.310425788 0.284400731 -0.306189001 0.083732046 -0.146542594 -0.259241283 0.494720131 0.599565089 0.319915742 0.388500094 -0.174787804 0.147809833 0.138214111 -0.504909337 -1.107685089 -0.094744563 0.249969959 0.585861444 -0.102164544 -0.401679128 0.093018942 -0.414334565 0.204219818
P7672 0.195047945 0.228641137 -0.284001768 0.113027163 0.173163325 -0.339043915 0.756765604 -0.055019941 -0.020981468 -0.043963276 -0.035221104 -0.015754852 -0.076684035 0.632722855 0.065160856 0.500749767 0.357119381 0.233203068 -0.046306387 -0.038773458 -0.208173156 -1.088941097 -0.488662839 -0.101608023 -0.623884976 0.226300657 0.015151844 -0.239178911 0.098787650 0.416251600
P5096 0.427865744 -0.097815894 -0.021320730 -0.124965221 0.235670552 0.120983973 0.854556262 0.152367026 -0.008185183 0.172981650 0.325856566 -0.601887107 0.170064896 0.424333245 0.102458872 -0.311710387 -0.070324235 0.077564739 0.311358184 -0.264244527 -0.341040552 -1.060795307 -0.528062284 0.140158370 -0.257857829 -0.095821798 0.307494581 -0.086986333 0.169855207 0.400323480
Q1189438 -0.001115602 -0.097313136 0.102962926 0.388967544 0.180076107 0.098998159 0.928469956 0.377934754 -0.045154553 0.310946196 0.186716154 0.261698663 -0.081468433 -0.442049265 -0.230242163 0.008721841 0.503435254 0.635141611 0.111477323 -0.330102503 0.294723690 -1.067414284 0.344173461 -0.071571030 -0.950210929 0.230416715 0.007664886 -0.204601228 -0.403592646 -0.193876505
P6643 -0.505860150 -0.611837506 0.245577231 0.160185769 0.420447588 -0.179004267 0.966036439 -0.084057160 -0.184761956 0.037951831 -0.878979743 -0.465256304 -0.030791497 0.059406571 0.260956049 0.129089177 0.521493554 0.107891165 0.045913253 -0.298945189 -0.145280436 -1.182193398 -0.463191241 -0.204047307 0.091404736 -0.117271677 0.012433074 0.237964541 -0.185214117 -0.045567971
Q34414 -0.511730313 -0.155958548 0.067102991 -1.075464129 -0.334120691 -0.055518989 1.535776734 0.707274020 0.269673675 -0.073499188 -0.022028603 0.068262249 0.346389532 -0.320154458 0.037289683 0.356215775 -0.346045941 0.476162165 -0.430263400 0.034016967 0.673270524 -1.002787828 0.001746208 -0.257742673 0.164449215 -0.341626465 0.755568504 -0.129616201 0.333749205 0.276926577
Q33113461 -0.221483499 0.084139273 0.196161538 0.158295944 0.459891647 0.494911641 0.986868203 -0.236333579 0.494940042 -0.222889751 0.114182144 0.504145861 -0.662483573 0.345498502 -0.154807687 0.215935990 -0.303477675 0.250695258 0.225543782 0.495149404 -0.551380515 -1.164525509 -0.342014939 0.202652067 0.240161940 -0.285602301 0.458396733 -0.609036744 0.207023188 -0.387294620
Q642876 0.021160236 -0.051308081 -0.120440349 0.621718884 0.026210058 -0.125239313 0.736997902 0.365683198 0.258707553 0.028739966 0.029913785 -0.044909604 -0.165493131 -0.197340816 -0.265663326 -0.201297194 -0.018250452 0.260402024 0.191454172 -0.308441520 0.022263592 -0.838243604 -0.416652292 0.019499218 -0.105775967 -0.006422892 -0.015124769 0.015723921 -0.296638697 -0.069584236
Q73773881 -0.245583847 0.669205010 -0.048312794 0.932131410 0.341442972 0.014007375 0.966336966 -0.558112442 -0.141803563 0.502121568 0.588620663 -0.430061072 -0.153591380 -0.033235397 0.015944257 0.422216088 -0.141883552 0.183986261 0.083256006 0.160879031 0.093924262 -1.237504482 -0.508384347 -0.580800235 -0.132503062 0.360550761 0.393774509 -0.830670655 0.607532024 0.158115670
Q42976 -0.418916494 -0.900688350 0.861948907 0.258011103 -0.514426589 -0.670549452 1.379217744 -0.462576002 0.097016774 -0.850601137 -0.414797664 -0.647440493 -0.501258433 0.557327032 -0.712712109 -0.290745735 -0.580999076 0.054891136 -0.578576982 -0.546105981 0.115662336 -1.876304388 -0.257462382 1.119326591 0.182576358 0.728861332 0.878416061 -0.443242162 0.232529327 -0.095249973
Q456 -1.076099515 1.101574302 1.538118005 0.357084930 -0.429486036 -0.088578671 2.036719799 -0.915169060 0.329996675 -0.935919762 -0.430877417 -0.563146591 -0.404445738 0.128497258 0.846563339 -0.274509251 0.131591514 -0.159594133 -0.660246730 0.132568330 -0.395304680 -1.506401777 0.460786700 0.979109406 0.331649065 -0.426972091 -0.039991476 1.207153082 0.393182725 -0.384584278
Q3130723 0.262765735 -0.092898391 -0.028410114 0.422846526 0.311145872 -0.235615686 0.886646092 0.531637311 0.730826974 0.422548562 -0.466640621 -0.190049961 -0.141704038 0.223071650 -0.378245682 -0.145741463 -0.361781150 0.388397813 0.402982295 -0.394009143 -0.051774811 -1.149069190 0.550830185 0.098629929 0.044840433 0.354809463 0.365819514 0.321082145 -0.353713155 0.244270816
